digraph Tree {
node [shape=box] ;
0 [label="X[115] <= -0.501\ngini = 0.5\nsamples = 2326\nvalue = [1848, 1840]"] ;
1 [label="X[152] <= -0.47\ngini = 0.209\nsamples = 336\nvalue = [483, 65]"] ;
0 -> 1 [labeldistance=2.5, labelangle=45, headlabel="True"] ;
2 [label="X[144] <= -0.631\ngini = 0.057\nsamples = 240\nvalue = [396, 12]"] ;
1 -> 2 ;
3 [label="X[60] <= -0.051\ngini = 0.162\nsamples = 75\nvalue = [123, 12]"] ;
2 -> 3 ;
4 [label="gini = 0.0\nsamples = 52\nvalue = [99, 0]"] ;
3 -> 4 ;
5 [label="X[65] <= 0.264\ngini = 0.444\nsamples = 23\nvalue = [24, 12]"] ;
3 -> 5 ;
6 [label="X[93] <= 0.212\ngini = 0.153\nsamples = 7\nvalue = [1, 11]"] ;
5 -> 6 ;
7 [label="gini = 0.0\nsamples = 6\nvalue = [0, 11]"] ;
6 -> 7 ;
8 [label="gini = 0.0\nsamples = 1\nvalue = [1, 0]"] ;
6 -> 8 ;
9 [label="X[67] <= -0.087\ngini = 0.08\nsamples = 16\nvalue = [23, 1]"] ;
5 -> 9 ;
10 [label="gini = 0.0\nsamples = 14\nvalue = [21, 0]"] ;
9 -> 10 ;
11 [label="X[95] <= 0.211\ngini = 0.444\nsamples = 2\nvalue = [2, 1]"] ;
9 -> 11 ;
12 [label="gini = 0.0\nsamples = 1\nvalue = [0, 1]"] ;
11 -> 12 ;
13 [label="gini = 0.0\nsamples = 1\nvalue = [2, 0]"] ;
11 -> 13 ;
14 [label="gini = 0.0\nsamples = 165\nvalue = [273, 0]"] ;
2 -> 14 ;
15 [label="X[144] <= -0.968\ngini = 0.471\nsamples = 96\nvalue = [87, 53]"] ;
1 -> 15 ;
16 [label="X[24] <= -0.053\ngini = 0.418\nsamples = 51\nvalue = [22, 52]"] ;
15 -> 16 ;
17 [label="gini = 0.0\nsamples = 12\nvalue = [17, 0]"] ;
16 -> 17 ;
18 [label="X[34] <= 0.374\ngini = 0.16\nsamples = 39\nvalue = [5, 52]"] ;
16 -> 18 ;
19 [label="X[66] <= -0.56\ngini = 0.074\nsamples = 35\nvalue = [2, 50]"] ;
18 -> 19 ;
20 [label="gini = 0.0\nsamples = 1\nvalue = [1, 0]"] ;
19 -> 20 ;
21 [label="X[196] <= 0.647\ngini = 0.038\nsamples = 34\nvalue = [1, 50]"] ;
19 -> 21 ;
22 [label="gini = 0.0\nsamples = 33\nvalue = [0, 50]"] ;
21 -> 22 ;
23 [label="gini = 0.0\nsamples = 1\nvalue = [1, 0]"] ;
21 -> 23 ;
24 [label="X[80] <= 0.2\ngini = 0.48\nsamples = 4\nvalue = [3, 2]"] ;
18 -> 24 ;
25 [label="gini = 0.0\nsamples = 2\nvalue = [3, 0]"] ;
24 -> 25 ;
26 [label="gini = 0.0\nsamples = 2\nvalue = [0, 2]"] ;
24 -> 26 ;
27 [label="X[0] <= 0.6\ngini = 0.03\nsamples = 45\nvalue = [65, 1]"] ;
15 -> 27 ;
28 [label="gini = 0.0\nsamples = 36\nvalue = [55, 0]"] ;
27 -> 28 ;
29 [label="X[45] <= -0.027\ngini = 0.165\nsamples = 9\nvalue = [10, 1]"] ;
27 -> 29 ;
30 [label="gini = 0.0\nsamples = 7\nvalue = [9, 0]"] ;
29 -> 30 ;
31 [label="X[198] <= 0.546\ngini = 0.5\nsamples = 2\nvalue = [1, 1]"] ;
29 -> 31 ;
32 [label="gini = 0.0\nsamples = 1\nvalue = [0, 1]"] ;
31 -> 32 ;
33 [label="gini = 0.0\nsamples = 1\nvalue = [1, 0]"] ;
31 -> 33 ;
34 [label="X[254] <= -0.558\ngini = 0.491\nsamples = 1990\nvalue = [1365, 1775]"] ;
0 -> 34 [labeldistance=2.5, labelangle=-45, headlabel="False"] ;
35 [label="X[3] <= -1.079\ngini = 0.492\nsamples = 1136\nvalue = [1020, 790]"] ;
34 -> 35 ;
36 [label="X[19] <= -0.032\ngini = 0.388\nsamples = 271\nvalue = [112, 314]"] ;
35 -> 36 ;
37 [label="X[21] <= -0.295\ngini = 0.116\nsamples = 162\nvalue = [16, 242]"] ;
36 -> 37 ;
38 [label="X[124] <= 0.764\ngini = 0.251\nsamples = 66\nvalue = [15, 87]"] ;
37 -> 38 ;
39 [label="X[36] <= -0.157\ngini = 0.199\nsamples = 65\nvalue = [11, 87]"] ;
38 -> 39 ;
40 [label="X[70] <= -0.231\ngini = 0.121\nsamples = 62\nvalue = [6, 87]"] ;
39 -> 40 ;
41 [label="gini = 0.0\nsamples = 2\nvalue = [3, 0]"] ;
40 -> 41 ;
42 [label="X[235] <= 0.9\ngini = 0.064\nsamples = 60\nvalue = [3, 87]"] ;
40 -> 42 ;
43 [label="X[253] <= 1.004\ngini = 0.022\nsamples = 58\nvalue = [1, 87]"] ;
42 -> 43 ;
44 [label="gini = 0.0\nsamples = 57\nvalue = [0, 87]"] ;
43 -> 44 ;
45 [label="gini = 0.0\nsamples = 1\nvalue = [1, 0]"] ;
43 -> 45 ;
46 [label="gini = 0.0\nsamples = 2\nvalue = [2, 0]"] ;
42 -> 46 ;
47 [label="gini = 0.0\nsamples = 3\nvalue = [5, 0]"] ;
39 -> 47 ;
48 [label="gini = 0.0\nsamples = 1\nvalue = [4, 0]"] ;
38 -> 48 ;
49 [label="X[178] <= 2.549\ngini = 0.013\nsamples = 96\nvalue = [1, 155]"] ;
37 -> 49 ;
50 [label="gini = 0.0\nsamples = 91\nvalue = [0, 150]"] ;
49 -> 50 ;
51 [label="X[79] <= 0.073\ngini = 0.278\nsamples = 5\nvalue = [1, 5]"] ;
49 -> 51 ;
52 [label="gini = 0.0\nsamples = 4\nvalue = [0, 5]"] ;
51 -> 52 ;
53 [label="gini = 0.0\nsamples = 1\nvalue = [1, 0]"] ;
51 -> 53 ;
54 [label="X[27] <= 0.252\ngini = 0.49\nsamples = 109\nvalue = [96, 72]"] ;
36 -> 54 ;
55 [label="X[107] <= -1.056\ngini = 0.394\nsamples = 76\nvalue = [84, 31]"] ;
54 -> 55 ;
56 [label="gini = 0.0\nsamples = 3\nvalue = [0, 5]"] ;
55 -> 56 ;
57 [label="X[143] <= -1.572\ngini = 0.361\nsamples = 73\nvalue = [84, 26]"] ;
55 -> 57 ;
58 [label="X[52] <= -0.059\ngini = 0.291\nsamples = 13\nvalue = [3, 14]"] ;
57 -> 58 ;
59 [label="gini = 0.0\nsamples = 2\nvalue = [2, 0]"] ;
58 -> 59 ;
60 [label="X[42] <= 0.304\ngini = 0.124\nsamples = 11\nvalue = [1, 14]"] ;
58 -> 60 ;
61 [label="gini = 0.0\nsamples = 10\nvalue = [0, 14]"] ;
60 -> 61 ;
62 [label="gini = 0.0\nsamples = 1\nvalue = [1, 0]"] ;
60 -> 62 ;
63 [label="X[80] <= -0.502\ngini = 0.225\nsamples = 60\nvalue = [81, 12]"] ;
57 -> 63 ;
64 [label="X[58] <= 0.202\ngini = 0.444\nsamples = 7\nvalue = [3, 6]"] ;
63 -> 64 ;
65 [label="gini = 0.0\nsamples = 6\nvalue = [0, 6]"] ;
64 -> 65 ;
66 [label="gini = 0.0\nsamples = 1\nvalue = [3, 0]"] ;
64 -> 66 ;
67 [label="X[145] <= -0.98\ngini = 0.133\nsamples = 53\nvalue = [78, 6]"] ;
63 -> 67 ;
68 [label="X[50] <= -0.428\ngini = 0.029\nsamples = 39\nvalue = [66, 1]"] ;
67 -> 68 ;
69 [label="X[64] <= -0.074\ngini = 0.444\nsamples = 3\nvalue = [2, 1]"] ;
68 -> 69 ;
70 [label="gini = 0.0\nsamples = 1\nvalue = [0, 1]"] ;
69 -> 70 ;
71 [label="gini = 0.0\nsamples = 2\nvalue = [2, 0]"] ;
69 -> 71 ;
72 [label="gini = 0.0\nsamples = 36\nvalue = [64, 0]"] ;
68 -> 72 ;
73 [label="X[40] <= 0.193\ngini = 0.415\nsamples = 14\nvalue = [12, 5]"] ;
67 -> 73 ;
74 [label="gini = 0.0\nsamples = 11\nvalue = [12, 0]"] ;
73 -> 74 ;
75 [label="gini = 0.0\nsamples = 3\nvalue = [0, 5]"] ;
73 -> 75 ;
76 [label="X[85] <= 0.008\ngini = 0.35\nsamples = 33\nvalue = [12, 41]"] ;
54 -> 76 ;
77 [label="X[121] <= 0.013\ngini = 0.254\nsamples = 28\nvalue = [7, 40]"] ;
76 -> 77 ;
78 [label="X[240] <= 0.979\ngini = 0.048\nsamples = 25\nvalue = [1, 40]"] ;
77 -> 78 ;
79 [label="gini = 0.0\nsamples = 24\nvalue = [0, 40]"] ;
78 -> 79 ;
80 [label="gini = 0.0\nsamples = 1\nvalue = [1, 0]"] ;
78 -> 80 ;
81 [label="gini = 0.0\nsamples = 3\nvalue = [6, 0]"] ;
77 -> 81 ;
82 [label="X[124] <= 0.485\ngini = 0.278\nsamples = 5\nvalue = [5, 1]"] ;
76 -> 82 ;
83 [label="gini = 0.0\nsamples = 4\nvalue = [5, 0]"] ;
82 -> 83 ;
84 [label="gini = 0.0\nsamples = 1\nvalue = [0, 1]"] ;
82 -> 84 ;
85 [label="X[39] <= -0.056\ngini = 0.451\nsamples = 865\nvalue = [908, 476]"] ;
35 -> 85 ;
86 [label="X[212] <= 1.388\ngini = 0.5\nsamples = 500\nvalue = [393, 378]"] ;
85 -> 86 ;
87 [label="X[277] <= -0.45\ngini = 0.491\nsamples = 420\nvalue = [284, 373]"] ;
86 -> 87 ;
88 [label="X[206] <= 1.182\ngini = 0.49\nsamples = 268\nvalue = [238, 178]"] ;
87 -> 88 ;
89 [label="X[105] <= 0.001\ngini = 0.493\nsamples = 190\nvalue = [129, 164]"] ;
88 -> 89 ;
90 [label="X[269] <= -0.697\ngini = 0.437\nsamples = 102\nvalue = [105, 50]"] ;
89 -> 90 ;
91 [label="X[30] <= -0.133\ngini = 0.33\nsamples = 77\nvalue = [91, 24]"] ;
90 -> 91 ;
92 [label="X[151] <= -0.333\ngini = 0.196\nsamples = 68\nvalue = [89, 11]"] ;
91 -> 92 ;
93 [label="X[9] <= -1.459\ngini = 0.064\nsamples = 61\nvalue = [87, 3]"] ;
92 -> 93 ;
94 [label="gini = 0.0\nsamples = 3\nvalue = [0, 3]"] ;
93 -> 94 ;
95 [label="gini = 0.0\nsamples = 58\nvalue = [87, 0]"] ;
93 -> 95 ;
96 [label="X[8] <= -0.032\ngini = 0.32\nsamples = 7\nvalue = [2, 8]"] ;
92 -> 96 ;
97 [label="gini = 0.0\nsamples = 6\nvalue = [0, 8]"] ;
96 -> 97 ;
98 [label="gini = 0.0\nsamples = 1\nvalue = [2, 0]"] ;
96 -> 98 ;
99 [label="X[159] <= 0.295\ngini = 0.231\nsamples = 9\nvalue = [2, 13]"] ;
91 -> 99 ;
100 [label="gini = 0.0\nsamples = 2\nvalue = [2, 0]"] ;
99 -> 100 ;
101 [label="gini = 0.0\nsamples = 7\nvalue = [0, 13]"] ;
99 -> 101 ;
102 [label="X[269] <= 1.239\ngini = 0.455\nsamples = 25\nvalue = [14, 26]"] ;
90 -> 102 ;
103 [label="gini = 0.0\nsamples = 16\nvalue = [0, 22]"] ;
102 -> 103 ;
104 [label="X[10] <= 1.586\ngini = 0.346\nsamples = 9\nvalue = [14, 4]"] ;
102 -> 104 ;
105 [label="gini = 0.0\nsamples = 8\nvalue = [14, 0]"] ;
104 -> 105 ;
106 [label="gini = 0.0\nsamples = 1\nvalue = [0, 4]"] ;
104 -> 106 ;
107 [label="X[65] <= 0.114\ngini = 0.287\nsamples = 88\nvalue = [24, 114]"] ;
89 -> 107 ;
108 [label="X[57] <= 0.84\ngini = 0.174\nsamples = 78\nvalue = [12, 113]"] ;
107 -> 108 ;
109 [label="X[124] <= -0.989\ngini = 0.111\nsamples = 73\nvalue = [7, 112]"] ;
108 -> 109 ;
110 [label="gini = 0.0\nsamples = 1\nvalue = [2, 0]"] ;
109 -> 110 ;
111 [label="X[50] <= -0.538\ngini = 0.082\nsamples = 72\nvalue = [5, 112]"] ;
109 -> 111 ;
112 [label="X[24] <= 0.466\ngini = 0.32\nsamples = 4\nvalue = [4, 1]"] ;
111 -> 112 ;
113 [label="gini = 0.0\nsamples = 3\nvalue = [4, 0]"] ;
112 -> 113 ;
114 [label="gini = 0.0\nsamples = 1\nvalue = [0, 1]"] ;
112 -> 114 ;
115 [label="X[64] <= 0.718\ngini = 0.018\nsamples = 68\nvalue = [1, 111]"] ;
111 -> 115 ;
116 [label="gini = 0.0\nsamples = 66\nvalue = [0, 110]"] ;
115 -> 116 ;
117 [label="X[87] <= 0.236\ngini = 0.5\nsamples = 2\nvalue = [1, 1]"] ;
115 -> 117 ;
118 [label="gini = 0.0\nsamples = 1\nvalue = [0, 1]"] ;
117 -> 118 ;
119 [label="gini = 0.0\nsamples = 1\nvalue = [1, 0]"] ;
117 -> 119 ;
120 [label="X[214] <= 0.731\ngini = 0.278\nsamples = 5\nvalue = [5, 1]"] ;
108 -> 120 ;
121 [label="gini = 0.0\nsamples = 4\nvalue = [5, 0]"] ;
120 -> 121 ;
122 [label="gini = 0.0\nsamples = 1\nvalue = [0, 1]"] ;
120 -> 122 ;
123 [label="X[32] <= -0.416\ngini = 0.142\nsamples = 10\nvalue = [12, 1]"] ;
107 -> 123 ;
124 [label="X[104] <= -0.003\ngini = 0.5\nsamples = 2\nvalue = [1, 1]"] ;
123 -> 124 ;
125 [label="gini = 0.0\nsamples = 1\nvalue = [0, 1]"] ;
124 -> 125 ;
126 [label="gini = 0.0\nsamples = 1\nvalue = [1, 0]"] ;
124 -> 126 ;
127 [label="gini = 0.0\nsamples = 8\nvalue = [11, 0]"] ;
123 -> 127 ;
128 [label="X[189] <= -0.361\ngini = 0.202\nsamples = 78\nvalue = [109, 14]"] ;
88 -> 128 ;
129 [label="X[126] <= -0.621\ngini = 0.108\nsamples = 65\nvalue = [99, 6]"] ;
128 -> 129 ;
130 [label="gini = 0.0\nsamples = 1\nvalue = [0, 1]"] ;
129 -> 130 ;
131 [label="X[38] <= -1.145\ngini = 0.092\nsamples = 64\nvalue = [99, 5]"] ;
129 -> 131 ;
132 [label="X[3] <= 1.091\ngini = 0.305\nsamples = 12\nvalue = [13, 3]"] ;
131 -> 132 ;
133 [label="X[214] <= 0.925\ngini = 0.133\nsamples = 11\nvalue = [13, 1]"] ;
132 -> 133 ;
134 [label="gini = 0.0\nsamples = 10\nvalue = [13, 0]"] ;
133 -> 134 ;
135 [label="gini = 0.0\nsamples = 1\nvalue = [0, 1]"] ;
133 -> 135 ;
136 [label="gini = 0.0\nsamples = 1\nvalue = [0, 2]"] ;
132 -> 136 ;
137 [label="X[271] <= 0.848\ngini = 0.044\nsamples = 52\nvalue = [86, 2]"] ;
131 -> 137 ;
138 [label="X[24] <= 0.096\ngini = 0.024\nsamples = 49\nvalue = [81, 1]"] ;
137 -> 138 ;
139 [label="gini = 0.0\nsamples = 44\nvalue = [75, 0]"] ;
138 -> 139 ;
140 [label="X[152] <= -0.101\ngini = 0.245\nsamples = 5\nvalue = [6, 1]"] ;
138 -> 140 ;
141 [label="gini = 0.0\nsamples = 4\nvalue = [6, 0]"] ;
140 -> 141 ;
142 [label="gini = 0.0\nsamples = 1\nvalue = [0, 1]"] ;
140 -> 142 ;
143 [label="X[258] <= 0.458\ngini = 0.278\nsamples = 3\nvalue = [5, 1]"] ;
137 -> 143 ;
144 [label="gini = 0.0\nsamples = 1\nvalue = [0, 1]"] ;
143 -> 144 ;
145 [label="gini = 0.0\nsamples = 2\nvalue = [5, 0]"] ;
143 -> 145 ;
146 [label="X[91] <= 0.149\ngini = 0.494\nsamples = 13\nvalue = [10, 8]"] ;
128 -> 146 ;
147 [label="gini = 0.0\nsamples = 6\nvalue = [8, 0]"] ;
146 -> 147 ;
148 [label="X[24] <= -0.403\ngini = 0.32\nsamples = 7\nvalue = [2, 8]"] ;
146 -> 148 ;
149 [label="gini = 0.0\nsamples = 1\nvalue = [2, 0]"] ;
148 -> 149 ;
150 [label="gini = 0.0\nsamples = 6\nvalue = [0, 8]"] ;
148 -> 150 ;
151 [label="X[152] <= -0.788\ngini = 0.309\nsamples = 152\nvalue = [46, 195]"] ;
87 -> 151 ;
152 [label="X[140] <= 0.342\ngini = 0.405\nsamples = 30\nvalue = [33, 13]"] ;
151 -> 152 ;
153 [label="X[213] <= -0.566\ngini = 0.444\nsamples = 9\nvalue = [5, 10]"] ;
152 -> 153 ;
154 [label="gini = 0.0\nsamples = 3\nvalue = [5, 0]"] ;
153 -> 154 ;
155 [label="gini = 0.0\nsamples = 6\nvalue = [0, 10]"] ;
153 -> 155 ;
156 [label="X[22] <= 2.208\ngini = 0.175\nsamples = 21\nvalue = [28, 3]"] ;
152 -> 156 ;
157 [label="X[59] <= -0.352\ngini = 0.067\nsamples = 20\nvalue = [28, 1]"] ;
156 -> 157 ;
158 [label="X[201] <= 0.309\ngini = 0.444\nsamples = 2\nvalue = [2, 1]"] ;
157 -> 158 ;
159 [label="gini = 0.0\nsamples = 1\nvalue = [0, 1]"] ;
158 -> 159 ;
160 [label="gini = 0.0\nsamples = 1\nvalue = [2, 0]"] ;
158 -> 160 ;
161 [label="gini = 0.0\nsamples = 18\nvalue = [26, 0]"] ;
157 -> 161 ;
162 [label="gini = 0.0\nsamples = 1\nvalue = [0, 2]"] ;
156 -> 162 ;
163 [label="X[7] <= 0.155\ngini = 0.124\nsamples = 122\nvalue = [13, 182]"] ;
151 -> 163 ;
164 [label="X[54] <= 0.644\ngini = 0.054\nsamples = 114\nvalue = [5, 176]"] ;
163 -> 164 ;
165 [label="X[30] <= -1.285\ngini = 0.033\nsamples = 112\nvalue = [3, 176]"] ;
164 -> 165 ;
166 [label="gini = 0.0\nsamples = 1\nvalue = [1, 0]"] ;
165 -> 166 ;
167 [label="X[117] <= -0.241\ngini = 0.022\nsamples = 111\nvalue = [2, 176]"] ;
165 -> 167 ;
168 [label="gini = 0.0\nsamples = 1\nvalue = [1, 0]"] ;
167 -> 168 ;
169 [label="X[105] <= 0.488\ngini = 0.011\nsamples = 110\nvalue = [1, 176]"] ;
167 -> 169 ;
170 [label="gini = 0.0\nsamples = 107\nvalue = [0, 170]"] ;
169 -> 170 ;
171 [label="X[137] <= -0.131\ngini = 0.245\nsamples = 3\nvalue = [1, 6]"] ;
169 -> 171 ;
172 [label="gini = 0.0\nsamples = 1\nvalue = [1, 0]"] ;
171 -> 172 ;
173 [label="gini = 0.0\nsamples = 2\nvalue = [0, 6]"] ;
171 -> 173 ;
174 [label="gini = 0.0\nsamples = 2\nvalue = [2, 0]"] ;
164 -> 174 ;
175 [label="X[86] <= -0.316\ngini = 0.49\nsamples = 8\nvalue = [8, 6]"] ;
163 -> 175 ;
176 [label="gini = 0.0\nsamples = 3\nvalue = [5, 0]"] ;
175 -> 176 ;
177 [label="X[126] <= -0.166\ngini = 0.444\nsamples = 5\nvalue = [3, 6]"] ;
175 -> 177 ;
178 [label="gini = 0.0\nsamples = 2\nvalue = [2, 0]"] ;
177 -> 178 ;
179 [label="X[116] <= -0.211\ngini = 0.245\nsamples = 3\nvalue = [1, 6]"] ;
177 -> 179 ;
180 [label="gini = 0.0\nsamples = 2\nvalue = [0, 6]"] ;
179 -> 180 ;
181 [label="gini = 0.0\nsamples = 1\nvalue = [1, 0]"] ;
179 -> 181 ;
182 [label="X[20] <= 0.239\ngini = 0.084\nsamples = 80\nvalue = [109, 5]"] ;
86 -> 182 ;
183 [label="X[171] <= 0.196\ngini = 0.054\nsamples = 75\nvalue = [105, 3]"] ;
182 -> 183 ;
184 [label="gini = 0.0\nsamples = 61\nvalue = [90, 0]"] ;
183 -> 184 ;
185 [label="X[108] <= 0.32\ngini = 0.278\nsamples = 14\nvalue = [15, 3]"] ;
183 -> 185 ;
186 [label="gini = 0.0\nsamples = 11\nvalue = [15, 0]"] ;
185 -> 186 ;
187 [label="gini = 0.0\nsamples = 3\nvalue = [0, 3]"] ;
185 -> 187 ;
188 [label="X[18] <= -0.145\ngini = 0.444\nsamples = 5\nvalue = [4, 2]"] ;
182 -> 188 ;
189 [label="gini = 0.0\nsamples = 1\nvalue = [0, 2]"] ;
188 -> 189 ;
190 [label="gini = 0.0\nsamples = 4\nvalue = [4, 0]"] ;
188 -> 190 ;
191 [label="X[0] <= 0.768\ngini = 0.269\nsamples = 365\nvalue = [515, 98]"] ;
85 -> 191 ;
192 [label="X[75] <= -1.532\ngini = 0.116\nsamples = 269\nvalue = [410, 27]"] ;
191 -> 192 ;
193 [label="X[148] <= 0.351\ngini = 0.278\nsamples = 5\nvalue = [1, 5]"] ;
192 -> 193 ;
194 [label="gini = 0.0\nsamples = 1\nvalue = [1, 0]"] ;
193 -> 194 ;
195 [label="gini = 0.0\nsamples = 4\nvalue = [0, 5]"] ;
193 -> 195 ;
196 [label="X[115] <= -0.341\ngini = 0.097\nsamples = 264\nvalue = [409, 22]"] ;
192 -> 196 ;
197 [label="gini = 0.0\nsamples = 7\nvalue = [0, 10]"] ;
196 -> 197 ;
198 [label="X[91] <= -1.024\ngini = 0.055\nsamples = 257\nvalue = [409, 12]"] ;
196 -> 198 ;
199 [label="X[140] <= -0.421\ngini = 0.32\nsamples = 20\nvalue = [24, 6]"] ;
198 -> 199 ;
200 [label="gini = 0.0\nsamples = 5\nvalue = [0, 6]"] ;
199 -> 200 ;
201 [label="gini = 0.0\nsamples = 15\nvalue = [24, 0]"] ;
199 -> 201 ;
202 [label="X[143] <= -0.225\ngini = 0.03\nsamples = 237\nvalue = [385, 6]"] ;
198 -> 202 ;
203 [label="X[49] <= 0.559\ngini = 0.099\nsamples = 73\nvalue = [109, 6]"] ;
202 -> 203 ;
204 [label="X[39] <= 0.102\ngini = 0.069\nsamples = 71\nvalue = [108, 4]"] ;
203 -> 204 ;
205 [label="X[88] <= 0.422\ngini = 0.298\nsamples = 11\nvalue = [18, 4]"] ;
204 -> 205 ;
206 [label="gini = 0.0\nsamples = 7\nvalue = [15, 0]"] ;
205 -> 206 ;
207 [label="X[90] <= 0.112\ngini = 0.49\nsamples = 4\nvalue = [3, 4]"] ;
205 -> 207 ;
208 [label="gini = 0.0\nsamples = 2\nvalue = [0, 4]"] ;
207 -> 208 ;
209 [label="gini = 0.0\nsamples = 2\nvalue = [3, 0]"] ;
207 -> 209 ;
210 [label="gini = 0.0\nsamples = 60\nvalue = [90, 0]"] ;
204 -> 210 ;
211 [label="X[111] <= -0.067\ngini = 0.444\nsamples = 2\nvalue = [1, 2]"] ;
203 -> 211 ;
212 [label="gini = 0.0\nsamples = 1\nvalue = [1, 0]"] ;
211 -> 212 ;
213 [label="gini = 0.0\nsamples = 1\nvalue = [0, 2]"] ;
211 -> 213 ;
214 [label="gini = 0.0\nsamples = 164\nvalue = [276, 0]"] ;
202 -> 214 ;
215 [label="X[27] <= 0.215\ngini = 0.481\nsamples = 96\nvalue = [105, 71]"] ;
191 -> 215 ;
216 [label="X[28] <= -0.092\ngini = 0.459\nsamples = 38\nvalue = [26, 47]"] ;
215 -> 216 ;
217 [label="X[25] <= -0.121\ngini = 0.105\nsamples = 12\nvalue = [17, 1]"] ;
216 -> 217 ;
218 [label="X[91] <= -0.219\ngini = 0.444\nsamples = 2\nvalue = [2, 1]"] ;
217 -> 218 ;
219 [label="gini = 0.0\nsamples = 1\nvalue = [2, 0]"] ;
218 -> 219 ;
220 [label="gini = 0.0\nsamples = 1\nvalue = [0, 1]"] ;
218 -> 220 ;
221 [label="gini = 0.0\nsamples = 10\nvalue = [15, 0]"] ;
217 -> 221 ;
222 [label="X[175] <= 1.456\ngini = 0.274\nsamples = 26\nvalue = [9, 46]"] ;
216 -> 222 ;
223 [label="X[126] <= -0.21\ngini = 0.204\nsamples = 25\nvalue = [6, 46]"] ;
222 -> 223 ;
224 [label="gini = 0.0\nsamples = 2\nvalue = [3, 0]"] ;
223 -> 224 ;
225 [label="X[31] <= 0.133\ngini = 0.115\nsamples = 23\nvalue = [3, 46]"] ;
223 -> 225 ;
226 [label="gini = 0.0\nsamples = 21\nvalue = [0, 45]"] ;
225 -> 226 ;
227 [label="X[103] <= 0.395\ngini = 0.375\nsamples = 2\nvalue = [3, 1]"] ;
225 -> 227 ;
228 [label="gini = 0.0\nsamples = 1\nvalue = [3, 0]"] ;
227 -> 228 ;
229 [label="gini = 0.0\nsamples = 1\nvalue = [0, 1]"] ;
227 -> 229 ;
230 [label="gini = 0.0\nsamples = 1\nvalue = [3, 0]"] ;
222 -> 230 ;
231 [label="X[92] <= 1.189\ngini = 0.357\nsamples = 58\nvalue = [79, 24]"] ;
215 -> 231 ;
232 [label="X[226] <= 1.036\ngini = 0.162\nsamples = 44\nvalue = [72, 7]"] ;
231 -> 232 ;
233 [label="X[260] <= -0.193\ngini = 0.08\nsamples = 40\nvalue = [69, 3]"] ;
232 -> 233 ;
234 [label="gini = 0.0\nsamples = 38\nvalue = [67, 0]"] ;
233 -> 234 ;
235 [label="X[112] <= -0.06\ngini = 0.48\nsamples = 2\nvalue = [2, 3]"] ;
233 -> 235 ;
236 [label="gini = 0.0\nsamples = 1\nvalue = [0, 3]"] ;
235 -> 236 ;
237 [label="gini = 0.0\nsamples = 1\nvalue = [2, 0]"] ;
235 -> 237 ;
238 [label="X[134] <= 0.059\ngini = 0.49\nsamples = 4\nvalue = [3, 4]"] ;
232 -> 238 ;
239 [label="gini = 0.0\nsamples = 2\nvalue = [3, 0]"] ;
238 -> 239 ;
240 [label="gini = 0.0\nsamples = 2\nvalue = [0, 4]"] ;
238 -> 240 ;
241 [label="X[99] <= -0.368\ngini = 0.413\nsamples = 14\nvalue = [7, 17]"] ;
231 -> 241 ;
242 [label="gini = 0.0\nsamples = 4\nvalue = [7, 0]"] ;
241 -> 242 ;
243 [label="gini = 0.0\nsamples = 10\nvalue = [0, 17]"] ;
241 -> 243 ;
244 [label="X[31] <= 0.134\ngini = 0.384\nsamples = 854\nvalue = [345, 985]"] ;
34 -> 244 ;
245 [label="X[170] <= -0.945\ngini = 0.308\nsamples = 636\nvalue = [188, 800]"] ;
244 -> 245 ;
246 [label="X[139] <= -0.201\ngini = 0.468\nsamples = 55\nvalue = [52, 31]"] ;
245 -> 246 ;
247 [label="X[83] <= -0.424\ngini = 0.486\nsamples = 33\nvalue = [22, 31]"] ;
246 -> 247 ;
248 [label="X[60] <= 0.322\ngini = 0.278\nsamples = 20\nvalue = [5, 25]"] ;
247 -> 248 ;
249 [label="X[84] <= 0.855\ngini = 0.074\nsamples = 18\nvalue = [1, 25]"] ;
248 -> 249 ;
250 [label="gini = 0.0\nsamples = 17\nvalue = [0, 25]"] ;
249 -> 250 ;
251 [label="gini = 0.0\nsamples = 1\nvalue = [1, 0]"] ;
249 -> 251 ;
252 [label="gini = 0.0\nsamples = 2\nvalue = [4, 0]"] ;
248 -> 252 ;
253 [label="X[76] <= 0.3\ngini = 0.386\nsamples = 13\nvalue = [17, 6]"] ;
247 -> 253 ;
254 [label="X[223] <= 0.187\ngini = 0.111\nsamples = 9\nvalue = [16, 1]"] ;
253 -> 254 ;
255 [label="gini = 0.0\nsamples = 8\nvalue = [16, 0]"] ;
254 -> 255 ;
256 [label="gini = 0.0\nsamples = 1\nvalue = [0, 1]"] ;
254 -> 256 ;
257 [label="X[83] <= 0.264\ngini = 0.278\nsamples = 4\nvalue = [1, 5]"] ;
253 -> 257 ;
258 [label="gini = 0.0\nsamples = 3\nvalue = [0, 5]"] ;
257 -> 258 ;
259 [label="gini = 0.0\nsamples = 1\nvalue = [1, 0]"] ;
257 -> 259 ;
260 [label="gini = 0.0\nsamples = 22\nvalue = [30, 0]"] ;
246 -> 260 ;
261 [label="X[59] <= 0.061\ngini = 0.255\nsamples = 581\nvalue = [136, 769]"] ;
245 -> 261 ;
262 [label="X[144] <= -0.423\ngini = 0.155\nsamples = 406\nvalue = [55, 593]"] ;
261 -> 262 ;
263 [label="X[191] <= 1.567\ngini = 0.111\nsamples = 392\nvalue = [37, 591]"] ;
262 -> 263 ;
264 [label="X[69] <= 0.236\ngini = 0.014\nsamples = 353\nvalue = [4, 557]"] ;
263 -> 264 ;
265 [label="gini = 0.0\nsamples = 233\nvalue = [0, 368]"] ;
264 -> 265 ;
266 [label="X[95] <= -0.701\ngini = 0.041\nsamples = 120\nvalue = [4, 189]"] ;
264 -> 266 ;
267 [label="gini = 0.0\nsamples = 1\nvalue = [1, 0]"] ;
266 -> 267 ;
268 [label="X[63] <= 1.154\ngini = 0.031\nsamples = 119\nvalue = [3, 189]"] ;
266 -> 268 ;
269 [label="X[94] <= 0.307\ngini = 0.021\nsamples = 118\nvalue = [2, 189]"] ;
268 -> 269 ;
270 [label="X[28] <= -0.336\ngini = 0.01\nsamples = 117\nvalue = [1, 189]"] ;
269 -> 270 ;
271 [label="X[97] <= -0.015\ngini = 0.444\nsamples = 2\nvalue = [1, 2]"] ;
270 -> 271 ;
272 [label="gini = 0.0\nsamples = 1\nvalue = [0, 2]"] ;
271 -> 272 ;
273 [label="gini = 0.0\nsamples = 1\nvalue = [1, 0]"] ;
271 -> 273 ;
274 [label="gini = 0.0\nsamples = 115\nvalue = [0, 187]"] ;
270 -> 274 ;
275 [label="gini = 0.0\nsamples = 1\nvalue = [1, 0]"] ;
269 -> 275 ;
276 [label="gini = 0.0\nsamples = 1\nvalue = [1, 0]"] ;
268 -> 276 ;
277 [label="X[55] <= 0.709\ngini = 0.5\nsamples = 39\nvalue = [33, 34]"] ;
263 -> 277 ;
278 [label="X[134] <= -0.243\ngini = 0.375\nsamples = 21\nvalue = [30, 10]"] ;
277 -> 278 ;
279 [label="X[102] <= 0.263\ngini = 0.071\nsamples = 12\nvalue = [26, 1]"] ;
278 -> 279 ;
280 [label="gini = 0.0\nsamples = 10\nvalue = [25, 0]"] ;
279 -> 280 ;
281 [label="X[103] <= 0.184\ngini = 0.5\nsamples = 2\nvalue = [1, 1]"] ;
279 -> 281 ;
282 [label="gini = 0.0\nsamples = 1\nvalue = [0, 1]"] ;
281 -> 282 ;
283 [label="gini = 0.0\nsamples = 1\nvalue = [1, 0]"] ;
281 -> 283 ;
284 [label="X[74] <= -0.048\ngini = 0.426\nsamples = 9\nvalue = [4, 9]"] ;
278 -> 284 ;
285 [label="X[188] <= 0.269\ngini = 0.32\nsamples = 4\nvalue = [4, 1]"] ;
284 -> 285 ;
286 [label="gini = 0.0\nsamples = 1\nvalue = [0, 1]"] ;
285 -> 286 ;
287 [label="gini = 0.0\nsamples = 3\nvalue = [4, 0]"] ;
285 -> 287 ;
288 [label="gini = 0.0\nsamples = 5\nvalue = [0, 8]"] ;
284 -> 288 ;
289 [label="X[11] <= 0.023\ngini = 0.198\nsamples = 18\nvalue = [3, 24]"] ;
277 -> 289 ;
290 [label="X[69] <= 0.467\ngini = 0.142\nsamples = 17\nvalue = [2, 24]"] ;
289 -> 290 ;
291 [label="X[109] <= 0.888\ngini = 0.077\nsamples = 16\nvalue = [1, 24]"] ;
290 -> 291 ;
292 [label="gini = 0.0\nsamples = 12\nvalue = [0, 20]"] ;
291 -> 292 ;
293 [label="X[239] <= 0.082\ngini = 0.32\nsamples = 4\nvalue = [1, 4]"] ;
291 -> 293 ;
294 [label="gini = 0.0\nsamples = 1\nvalue = [1, 0]"] ;
293 -> 294 ;
295 [label="gini = 0.0\nsamples = 3\nvalue = [0, 4]"] ;
293 -> 295 ;
296 [label="gini = 0.0\nsamples = 1\nvalue = [1, 0]"] ;
290 -> 296 ;
297 [label="gini = 0.0\nsamples = 1\nvalue = [1, 0]"] ;
289 -> 297 ;
298 [label="X[137] <= 0.496\ngini = 0.18\nsamples = 14\nvalue = [18, 2]"] ;
262 -> 298 ;
299 [label="X[24] <= 0.396\ngini = 0.1\nsamples = 13\nvalue = [18, 1]"] ;
298 -> 299 ;
300 [label="gini = 0.0\nsamples = 11\nvalue = [17, 0]"] ;
299 -> 300 ;
301 [label="X[143] <= -0.062\ngini = 0.5\nsamples = 2\nvalue = [1, 1]"] ;
299 -> 301 ;
302 [label="gini = 0.0\nsamples = 1\nvalue = [0, 1]"] ;
301 -> 302 ;
303 [label="gini = 0.0\nsamples = 1\nvalue = [1, 0]"] ;
301 -> 303 ;
304 [label="gini = 0.0\nsamples = 1\nvalue = [0, 1]"] ;
298 -> 304 ;
305 [label="X[86] <= 0.299\ngini = 0.432\nsamples = 175\nvalue = [81, 176]"] ;
261 -> 305 ;
306 [label="X[223] <= 2.245\ngini = 0.314\nsamples = 136\nvalue = [39, 161]"] ;
305 -> 306 ;
307 [label="X[26] <= 0.302\ngini = 0.246\nsamples = 129\nvalue = [27, 161]"] ;
306 -> 307 ;
308 [label="X[29] <= -0.436\ngini = 0.194\nsamples = 123\nvalue = [19, 156]"] ;
307 -> 308 ;
309 [label="gini = 0.0\nsamples = 3\nvalue = [5, 0]"] ;
308 -> 309 ;
310 [label="X[106] <= 0.878\ngini = 0.151\nsamples = 120\nvalue = [14, 156]"] ;
308 -> 310 ;
311 [label="X[56] <= -0.604\ngini = 0.113\nsamples = 118\nvalue = [10, 156]"] ;
310 -> 311 ;
312 [label="X[29] <= -0.222\ngini = 0.32\nsamples = 4\nvalue = [4, 1]"] ;
311 -> 312 ;
313 [label="gini = 0.0\nsamples = 1\nvalue = [0, 1]"] ;
312 -> 313 ;
314 [label="gini = 0.0\nsamples = 3\nvalue = [4, 0]"] ;
312 -> 314 ;
315 [label="X[120] <= -0.428\ngini = 0.072\nsamples = 114\nvalue = [6, 155]"] ;
311 -> 315 ;
316 [label="gini = 0.0\nsamples = 1\nvalue = [1, 0]"] ;
315 -> 316 ;
317 [label="X[114] <= -0.368\ngini = 0.061\nsamples = 113\nvalue = [5, 155]"] ;
315 -> 317 ;
318 [label="gini = 0.0\nsamples = 1\nvalue = [1, 0]"] ;
317 -> 318 ;
319 [label="X[143] <= 0.424\ngini = 0.049\nsamples = 112\nvalue = [4, 155]"] ;
317 -> 319 ;
320 [label="X[93] <= 0.688\ngini = 0.037\nsamples = 111\nvalue = [3, 155]"] ;
319 -> 320 ;
321 [label="X[13] <= -0.454\ngini = 0.025\nsamples = 109\nvalue = [2, 153]"] ;
320 -> 321 ;
322 [label="gini = 0.0\nsamples = 1\nvalue = [1, 0]"] ;
321 -> 322 ;
323 [label="X[179] <= -0.933\ngini = 0.013\nsamples = 108\nvalue = [1, 153]"] ;
321 -> 323 ;
324 [label="X[3] <= 0.239\ngini = 0.32\nsamples = 4\nvalue = [1, 4]"] ;
323 -> 324 ;
325 [label="gini = 0.0\nsamples = 3\nvalue = [0, 4]"] ;
324 -> 325 ;
326 [label="gini = 0.0\nsamples = 1\nvalue = [1, 0]"] ;
324 -> 326 ;
327 [label="gini = 0.0\nsamples = 104\nvalue = [0, 149]"] ;
323 -> 327 ;
328 [label="X[126] <= 0.062\ngini = 0.444\nsamples = 2\nvalue = [1, 2]"] ;
320 -> 328 ;
329 [label="gini = 0.0\nsamples = 1\nvalue = [0, 2]"] ;
328 -> 329 ;
330 [label="gini = 0.0\nsamples = 1\nvalue = [1, 0]"] ;
328 -> 330 ;
331 [label="gini = 0.0\nsamples = 1\nvalue = [1, 0]"] ;
319 -> 331 ;
332 [label="gini = 0.0\nsamples = 2\nvalue = [4, 0]"] ;
310 -> 332 ;
333 [label="X[106] <= 0.011\ngini = 0.473\nsamples = 6\nvalue = [8, 5]"] ;
307 -> 333 ;
334 [label="gini = 0.0\nsamples = 2\nvalue = [0, 5]"] ;
333 -> 334 ;
335 [label="gini = 0.0\nsamples = 4\nvalue = [8, 0]"] ;
333 -> 335 ;
336 [label="gini = 0.0\nsamples = 7\nvalue = [12, 0]"] ;
306 -> 336 ;
337 [label="X[33] <= 0.232\ngini = 0.388\nsamples = 39\nvalue = [42, 15]"] ;
305 -> 337 ;
338 [label="X[136] <= 2.234\ngini = 0.108\nsamples = 25\nvalue = [33, 2]"] ;
337 -> 338 ;
339 [label="X[120] <= 1.201\ngini = 0.057\nsamples = 24\nvalue = [33, 1]"] ;
338 -> 339 ;
340 [label="gini = 0.0\nsamples = 21\nvalue = [30, 0]"] ;
339 -> 340 ;
341 [label="X[14] <= -0.029\ngini = 0.375\nsamples = 3\nvalue = [3, 1]"] ;
339 -> 341 ;
342 [label="gini = 0.0\nsamples = 1\nvalue = [0, 1]"] ;
341 -> 342 ;
343 [label="gini = 0.0\nsamples = 2\nvalue = [3, 0]"] ;
341 -> 343 ;
344 [label="gini = 0.0\nsamples = 1\nvalue = [0, 1]"] ;
338 -> 344 ;
345 [label="X[143] <= -0.225\ngini = 0.483\nsamples = 14\nvalue = [9, 13]"] ;
337 -> 345 ;
346 [label="X[227] <= 1.38\ngini = 0.231\nsamples = 9\nvalue = [2, 13]"] ;
345 -> 346 ;
347 [label="gini = 0.0\nsamples = 7\nvalue = [0, 13]"] ;
346 -> 347 ;
348 [label="gini = 0.0\nsamples = 2\nvalue = [2, 0]"] ;
346 -> 348 ;
349 [label="gini = 0.0\nsamples = 5\nvalue = [7, 0]"] ;
345 -> 349 ;
350 [label="X[88] <= 0.309\ngini = 0.497\nsamples = 218\nvalue = [157, 185]"] ;
244 -> 350 ;
351 [label="X[83] <= 0.81\ngini = 0.432\nsamples = 146\nvalue = [75, 163]"] ;
350 -> 351 ;
352 [label="X[9] <= 0.727\ngini = 0.367\nsamples = 130\nvalue = [52, 163]"] ;
351 -> 352 ;
353 [label="X[8] <= -0.45\ngini = 0.289\nsamples = 117\nvalue = [34, 160]"] ;
352 -> 353 ;
354 [label="gini = 0.0\nsamples = 5\nvalue = [6, 0]"] ;
353 -> 354 ;
355 [label="X[139] <= -0.062\ngini = 0.254\nsamples = 112\nvalue = [28, 160]"] ;
353 -> 355 ;
356 [label="X[103] <= -0.189\ngini = 0.122\nsamples = 100\nvalue = [11, 158]"] ;
355 -> 356 ;
357 [label="X[200] <= 0.82\ngini = 0.498\nsamples = 14\nvalue = [8, 9]"] ;
356 -> 357 ;
358 [label="X[50] <= -0.641\ngini = 0.298\nsamples = 8\nvalue = [2, 9]"] ;
357 -> 358 ;
359 [label="gini = 0.0\nsamples = 1\nvalue = [2, 0]"] ;
358 -> 359 ;
360 [label="gini = 0.0\nsamples = 7\nvalue = [0, 9]"] ;
358 -> 360 ;
361 [label="gini = 0.0\nsamples = 6\nvalue = [6, 0]"] ;
357 -> 361 ;
362 [label="X[109] <= -0.509\ngini = 0.039\nsamples = 86\nvalue = [3, 149]"] ;
356 -> 362 ;
363 [label="gini = 0.0\nsamples = 1\nvalue = [1, 0]"] ;
362 -> 363 ;
364 [label="X[253] <= 1.28\ngini = 0.026\nsamples = 85\nvalue = [2, 149]"] ;
362 -> 364 ;
365 [label="X[92] <= -0.44\ngini = 0.013\nsamples = 84\nvalue = [1, 149]"] ;
364 -> 365 ;
366 [label="X[77] <= 0.142\ngini = 0.245\nsamples = 5\nvalue = [1, 6]"] ;
365 -> 366 ;
367 [label="gini = 0.0\nsamples = 4\nvalue = [0, 6]"] ;
366 -> 367 ;
368 [label="gini = 0.0\nsamples = 1\nvalue = [1, 0]"] ;
366 -> 368 ;
369 [label="gini = 0.0\nsamples = 79\nvalue = [0, 143]"] ;
365 -> 369 ;
370 [label="gini = 0.0\nsamples = 1\nvalue = [1, 0]"] ;
364 -> 370 ;
371 [label="X[47] <= -0.508\ngini = 0.188\nsamples = 12\nvalue = [17, 2]"] ;
355 -> 371 ;
372 [label="X[24] <= -0.538\ngini = 0.444\nsamples = 2\nvalue = [1, 2]"] ;
371 -> 372 ;
373 [label="gini = 0.0\nsamples = 1\nvalue = [0, 2]"] ;
372 -> 373 ;
374 [label="gini = 0.0\nsamples = 1\nvalue = [1, 0]"] ;
372 -> 374 ;
375 [label="gini = 0.0\nsamples = 10\nvalue = [16, 0]"] ;
371 -> 375 ;
376 [label="X[17] <= 0.972\ngini = 0.245\nsamples = 13\nvalue = [18, 3]"] ;
352 -> 376 ;
377 [label="gini = 0.0\nsamples = 10\nvalue = [17, 0]"] ;
376 -> 377 ;
378 [label="X[19] <= 0.545\ngini = 0.375\nsamples = 3\nvalue = [1, 3]"] ;
376 -> 378 ;
379 [label="gini = 0.0\nsamples = 1\nvalue = [1, 0]"] ;
378 -> 379 ;
380 [label="gini = 0.0\nsamples = 2\nvalue = [0, 3]"] ;
378 -> 380 ;
381 [label="gini = 0.0\nsamples = 16\nvalue = [23, 0]"] ;
351 -> 381 ;
382 [label="X[176] <= 1.128\ngini = 0.334\nsamples = 72\nvalue = [82, 22]"] ;
350 -> 382 ;
383 [label="X[22] <= 0.137\ngini = 0.465\nsamples = 40\nvalue = [36, 21]"] ;
382 -> 383 ;
384 [label="X[64] <= 0.717\ngini = 0.48\nsamples = 22\nvalue = [12, 18]"] ;
383 -> 384 ;
385 [label="X[161] <= -1.012\ngini = 0.34\nsamples = 17\nvalue = [5, 18]"] ;
384 -> 385 ;
386 [label="X[213] <= 0.295\ngini = 0.444\nsamples = 4\nvalue = [4, 2]"] ;
385 -> 386 ;
387 [label="gini = 0.0\nsamples = 2\nvalue = [4, 0]"] ;
386 -> 387 ;
388 [label="gini = 0.0\nsamples = 2\nvalue = [0, 2]"] ;
386 -> 388 ;
389 [label="X[47] <= -0.456\ngini = 0.111\nsamples = 13\nvalue = [1, 16]"] ;
385 -> 389 ;
390 [label="gini = 0.0\nsamples = 1\nvalue = [1, 0]"] ;
389 -> 390 ;
391 [label="gini = 0.0\nsamples = 12\nvalue = [0, 16]"] ;
389 -> 391 ;
392 [label="gini = 0.0\nsamples = 5\nvalue = [7, 0]"] ;
384 -> 392 ;
393 [label="X[126] <= -0.693\ngini = 0.198\nsamples = 18\nvalue = [24, 3]"] ;
383 -> 393 ;
394 [label="gini = 0.0\nsamples = 1\nvalue = [0, 1]"] ;
393 -> 394 ;
395 [label="X[153] <= -0.519\ngini = 0.142\nsamples = 17\nvalue = [24, 2]"] ;
393 -> 395 ;
396 [label="gini = 0.0\nsamples = 14\nvalue = [23, 0]"] ;
395 -> 396 ;
397 [label="X[28] <= 0.243\ngini = 0.444\nsamples = 3\nvalue = [1, 2]"] ;
395 -> 397 ;
398 [label="gini = 0.0\nsamples = 2\nvalue = [0, 2]"] ;
397 -> 398 ;
399 [label="gini = 0.0\nsamples = 1\nvalue = [1, 0]"] ;
397 -> 399 ;
400 [label="X[10] <= -0.156\ngini = 0.042\nsamples = 32\nvalue = [46, 1]"] ;
382 -> 400 ;
401 [label="X[126] <= -0.166\ngini = 0.245\nsamples = 4\nvalue = [6, 1]"] ;
400 -> 401 ;
402 [label="gini = 0.0\nsamples = 1\nvalue = [0, 1]"] ;
401 -> 402 ;
403 [label="gini = 0.0\nsamples = 3\nvalue = [6, 0]"] ;
401 -> 403 ;
404 [label="gini = 0.0\nsamples = 28\nvalue = [40, 0]"] ;
400 -> 404 ;
}